<?xml version="1.0"?>
<opencv_storage>
<cascade>
  <stageType>BOOST</stageType>
  <featureType>LBP</featureType>
  <height>50</height>
  <width>50</width>
  <stageParams>
    <boostType>GAB</boostType>
    <minHitRate>9.9500000476837158e-01</minHitRate>
    <maxFalseAlarm>5.0000000000000000e-01</maxFalseAlarm>
    <weightTrimRate>9.4999999999999996e-01</weightTrimRate>
    <maxDepth>1</maxDepth>
    <maxWeakCount>100</maxWeakCount></stageParams>
  <featureParams>
    <maxCatCount>256</maxCatCount>
    <featSize>1</featSize></featureParams>
  <stageNum>15</stageNum>
  <stages>
    <!-- stage 0 -->
    <_>
      <maxWeakCount>3</maxWeakCount>
      <stageThreshold>-7.2335064411163330e-01</stageThreshold>
      <weakClassifiers>
        <_>
          <internalNodes>
            0 -1 3 -821055729 -13635665 -275779601 -1052689 252677647
            -272633937 -1894797425 -269488241</internalNodes>
          <leafValues>
            -7.5168830156326294e-01 8.4588956832885742e-01</leafValues></_>
        <_>
          <internalNodes>
            0 -1 42 -1346633729 254537659 -1880510707 261095375
            1064304619 801112063 -1880105073 -1879048193</internalNodes>
          <leafValues>
            -6.9150054454803467e-01 7.8154838085174561e-01</leafValues></_>
        <_>
          <internalNodes>
            0 -1 61 -2231919 -1078479201 -686690031 -136327021
            -611393357 -1076483 -447393680 -1056769</internalNodes>
          <leafValues>
            -7.0696502923965454e-01 7.1983820199966431e-01</leafValues></_></weakClassifiers></_>
    <!-- stage 1 -->
    <_>
      <maxWeakCount>4</maxWeakCount>
      <stageThreshold>-9.6372172236442566e-02</stageThreshold>
      <weakClassifiers>
        <_>
          <internalNodes>
            0 -1 17 -34 -134222081 -33554433 -33554689 -134350849
            1476360191 -1 2013265919</internalNodes>
          <leafValues>
            -7.3009598255157471e-01 7.7867108583450317e-01</leafValues></_>
        <_>
          <internalNodes>
            0 -1 9 721365947 668415455 1133628919 -2100869 -1471501381
            -470040421 -1570255941 -268440641</internalNodes>
          <leafValues>
            -8.2034462690353394e-01 6.5286862850189209e-01</leafValues></_>
        <_>
          <internalNodes>
            0 -1 67 -1 -17 -9 -1 -8388763 -8956043 1414911317 -34087561</internalNodes>
          <leafValues>
            -6.8414068222045898e-01 7.2098302841186523e-01</leafValues></_>
        <_>
          <internalNodes>
            0 -1 53 -71313021 -1154749526 -47842519 -1347421253 -4203073
            -1156849750 -268435457 -1078198277</internalNodes>
          <leafValues>
            -6.4996653795242310e-01 7.3308545351028442e-01</leafValues></_></weakClassifiers></_>
    <!-- stage 2 -->
    <_>
      <maxWeakCount>4</maxWeakCount>
      <stageThreshold>-1.3528051376342773e+00</stageThreshold>
      <weakClassifiers>
        <_>
          <internalNodes>
            0 -1 18 -1572874 -201857289 2012705779 1979151351 -8388626
            -218957862 2004350971 1994356735</internalNodes>
          <leafValues>
            -6.5275460481643677e-01 7.5493693351745605e-01</leafValues></_>
        <_>
          <internalNodes>
            0 -1 65 -1025 -8523811 -143524608 -145361581 -10791 -513
            1439716689 -570436139</internalNodes>
          <leafValues>
            -6.5240502357482910e-01 6.8200582265853882e-01</leafValues></_>
        <_>
          <internalNodes>
            0 -1 2 -1882198017 -807410209 617664991 -342099499 260132827
            -1884716729 163791861 -268438531</internalNodes>
          <leafValues>
            -7.1350008249282837e-01 6.3756716251373291e-01</leafValues></_>
        <_>
          <internalNodes>
            0 -1 49 -1111752705 1026682073 159991945 756017165
            -1147426114 -189601766 -2101207672 -4195441</internalNodes>
          <leafValues>
            -6.8521261215209961e-01 6.4065712690353394e-01</leafValues></_></weakClassifiers></_>
    <!-- stage 3 -->
    <_>
      <maxWeakCount>5</maxWeakCount>
      <stageThreshold>-7.6551473140716553e-01</stageThreshold>
      <weakClassifiers>
        <_>
          <internalNodes>
            0 -1 40 -16777217 -2132754433 1342173039 251658237 -67108865
            -51544066 -268439687 -1342177285</internalNodes>
          <leafValues>
            -5.4918438196182251e-01 7.8224790096282959e-01</leafValues></_>
        <_>
          <internalNodes>
            0 -1 60 -715401259 -671352353 361887061 -203442409
            -292883984 -1098213241 -761544688 -135268611</internalNodes>
          <leafValues>
            -6.9979774951934814e-01 6.2482589483261108e-01</leafValues></_>
        <_>
          <internalNodes>
            0 -1 31 -1875872847 2001735889 -2143219203 1028995057
            144739327 -19363441 -1969176833 -1617625159</internalNodes>
          <leafValues>
            -6.5110868215560913e-01 6.2763833999633789e-01</leafValues></_>
        <_>
          <internalNodes>
            0 -1 1 -805311489 200797051 -816620333 -280372965 181866379
            1133093771 268164567 1337720571</internalNodes>
          <leafValues>
            -7.6484644412994385e-01 5.1624506711959839e-01</leafValues></_>
        <_>
          <internalNodes>
            0 -1 52 -808584197 -1059586319 -1899118997 -2066936140
            -1368412661 -1025639656 -1880100946 -336728145</internalNodes>
          <leafValues>
            -5.9586220979690552e-01 6.1833101511001587e-01</leafValues></_></weakClassifiers></_>
    <!-- stage 4 -->
    <_>
      <maxWeakCount>5</maxWeakCount>
      <stageThreshold>-4.7837331891059875e-01</stageThreshold>
      <weakClassifiers>
        <_>
          <internalNodes>
            0 -1 19 -1289489501 -1087130829 -5114957 -5046223
            -1591543885 -4473421 -1632593253 -537148941</internalNodes>
          <leafValues>
            -4.9160447716712952e-01 7.9201245307922363e-01</leafValues></_>
        <_>
          <internalNodes>
            0 -1 22 -1107073 -1121968220 -4227265 -1627227235 -19033892
            -855636988 -9793 -276243011</internalNodes>
          <leafValues>
            -5.1993519067764282e-01 7.2952657938003540e-01</leafValues></_>
        <_>
          <internalNodes>
            0 -1 48 -251791105 -1154098979 65792474 837957104
            -1300436851 -85987384 -1427132480 -1428948006</internalNodes>
          <leafValues>
            -6.0537070035934448e-01 6.4382880926132202e-01</leafValues></_>
        <_>
          <internalNodes>
            0 -1 57 -1618281222 -1114908645 -1781935861 -1123813192
            -131404896 1214054417 -665847669 -6300225</internalNodes>
          <leafValues>
            -6.8048340082168579e-01 5.4096215963363647e-01</leafValues></_>
        <_>
          <internalNodes>
            0 -1 27 945 351273105 -1911874561 534712347 -1431639909
            -30897269 203026363 -1630537841</internalNodes>
          <leafValues>
            -6.2816393375396729e-01 5.9757483005523682e-01</leafValues></_></weakClassifiers></_>
    <!-- stage 5 -->
    <_>
      <maxWeakCount>5</maxWeakCount>
      <stageThreshold>-4.8915165662765503e-01</stageThreshold>
      <weakClassifiers>
        <_>
          <internalNodes>
            0 -1 13 -147325149 -4210901 -272629841 -4161 -1170489429
            -1077952721 -1347428437 -1077936209</internalNodes>
          <leafValues>
            -4.9879518151283264e-01 7.7324843406677246e-01</leafValues></_>
        <_>
          <internalNodes>
            0 -1 47 -1086586881 -1791799205 -2035658518 -2060814974
            -1861701378 -1316404954 1953276074 -4981574</internalNodes>
          <leafValues>
            -6.1938023567199707e-01 6.0742306709289551e-01</leafValues></_>
        <_>
          <internalNodes>
            0 -1 30 758319859 1025180615 -1325306373 522127319 781183739
            -1886655053 -2096104453 -1079251251</internalNodes>
          <leafValues>
            -5.8925491571426392e-01 6.4957505464553833e-01</leafValues></_>
        <_>
          <internalNodes>
            0 -1 66 -1487941633 -951086637 1434567160 1536536709
            -677645313 -938764134 159470033 -570592043</internalNodes>
          <leafValues>
            -6.3419187068939209e-01 5.7046467065811157e-01</leafValues></_>
        <_>
          <internalNodes>
            0 -1 50 -35783429 500292824 751815821 1027988765 -33558611
            -62865460 -285372785 -389439550</internalNodes>
          <leafValues>
            -5.3621757030487061e-01 6.4781403541564941e-01</leafValues></_></weakClassifiers></_>
    <!-- stage 6 -->
    <_>
      <maxWeakCount>5</maxWeakCount>
      <stageThreshold>-4.0876215696334839e-01</stageThreshold>
      <weakClassifiers>
        <_>
          <internalNodes>
            0 -1 7 -812908657 -275779665 -273678353 -24625 252706703
            -275780721 -1894776881 -540024881</internalNodes>
          <leafValues>
            -4.7720658779144287e-01 7.5774502754211426e-01</leafValues></_>
        <_>
          <internalNodes>
            0 -1 43 -19214081 -1216354075 1073712258 313236512
            -1397752662 -729030673 -1560301654 -1342504989</internalNodes>
          <leafValues>
            -5.3777420520782471e-01 6.5382087230682373e-01</leafValues></_>
        <_>
          <internalNodes>
            0 -1 55 -654050829 -1110574609 1867751391 -1082665125
            -318771457 -285217042 -318875777 -1431310353</internalNodes>
          <leafValues>
            -4.6708139777183533e-01 7.3153710365295410e-01</leafValues></_>
        <_>
          <internalNodes>
            0 -1 62 -106958191 -1089774561 -989244655 -606221377
            -1727292813 -329317883 -758922637 -203425285</internalNodes>
          <leafValues>
            -7.0078086853027344e-01 5.1346361637115479e-01</leafValues></_>
        <_>
          <internalNodes>
            0 -1 34 -1090445547 -1518479 -684468837 -16739071 -71050855
            -1062723 -35020897 -1677684735</internalNodes>
          <leafValues>
            -6.0285252332687378e-01 5.8248585462570190e-01</leafValues></_></weakClassifiers></_>
    <!-- stage 7 -->
    <_>
      <maxWeakCount>5</maxWeakCount>
      <stageThreshold>-6.8535530567169189e-01</stageThreshold>
      <weakClassifiers>
        <_>
          <internalNodes>
            0 -1 8 805256123 -1492278001 -1761349629 -1277836805
            -1886670965 -1350371193 -1559511299 -1342440753</internalNodes>
          <leafValues>
            -7.1686327457427979e-01 6.6527748107910156e-01</leafValues></_>
        <_>
          <internalNodes>
            0 -1 12 -6295557 -70108622 -1096080861 -1713685829
            -805509125 1476435076 -143655169 -3145729</internalNodes>
          <leafValues>
            -5.6284427642822266e-01 6.9908893108367920e-01</leafValues></_>
        <_>
          <internalNodes>
            0 -1 68 -35651593 -548012965 1159647699 2116018139 -13929609
            2036202611 1080914021 -612371585</internalNodes>
          <leafValues>
            -6.2226098775863647e-01 5.7391965389251709e-01</leafValues></_>
        <_>
          <internalNodes>
            0 -1 6 -8388609 787179191 -69633 44301791 -8388741 209575901
            -16777729 -823132165</internalNodes>
          <leafValues>
            -5.5780583620071411e-01 6.0919064283370972e-01</leafValues></_>
        <_>
          <internalNodes>
            0 -1 63 -758186789 -576926498 544830382 151820936
            -1428440566 -930184946 -896926930 -322180423</internalNodes>
          <leafValues>
            -5.8875805139541626e-01 5.8439236879348755e-01</leafValues></_></weakClassifiers></_>
    <!-- stage 8 -->
    <_>
      <maxWeakCount>5</maxWeakCount>
      <stageThreshold>-7.0149976015090942e-01</stageThreshold>
      <weakClassifiers>
        <_>
          <internalNodes>
            0 -1 15 -257960454 -204729917 -526036918 -1274986478
            1419766671 1598785679 1128958155 1607436955</internalNodes>
          <leafValues>
            -6.6153848171234131e-01 6.4463895559310913e-01</leafValues></_>
        <_>
          <internalNodes>
            0 -1 23 -254741517 -239864909 -1600068613 -776756495
            -1600929861 -122700869 -925828097 -273954933</internalNodes>
          <leafValues>
            -5.1312899589538574e-01 7.1633821725845337e-01</leafValues></_>
        <_>
          <internalNodes>
            0 -1 46 -585050640 -584188456 -233825949 -1185557025
            -268174872 -68247349 -23340085 687140873</internalNodes>
          <leafValues>
            -6.5055304765701294e-01 5.3800338506698608e-01</leafValues></_>
        <_>
          <internalNodes>
            0 -1 14 6095071 50062047 826757343 -211825473 -2010593152
            -1282703191 -1568431445 -5255169</internalNodes>
          <leafValues>
            -6.5311163663864136e-01 5.3478044271469116e-01</leafValues></_>
        <_>
          <internalNodes>
            0 -1 0 -134232113 -2131230721 -43 -553648129 1476378701
            -1057751041 -688062650 -604110851</internalNodes>
          <leafValues>
            -5.7226580381393433e-01 5.8894026279449463e-01</leafValues></_></weakClassifiers></_>
    <!-- stage 9 -->
    <_>
      <maxWeakCount>6</maxWeakCount>
      <stageThreshold>-1.4118930101394653e+00</stageThreshold>
      <weakClassifiers>
        <_>
          <internalNodes>
            0 -1 4 -271593969 -4241 -7345217 -1052737 -821063985
            -807424081 -1894920563 -7361553</internalNodes>
          <leafValues>
            -5.3493833541870117e-01 6.7744940519332886e-01</leafValues></_>
        <_>
          <internalNodes>
            0 -1 69 -136841225 -270535945 -217589289 -174195057
            -217941161 1933563953 20006261 -170398601</internalNodes>
          <leafValues>
            -6.7290538549423218e-01 5.3772908449172974e-01</leafValues></_>
        <_>
          <internalNodes>
            0 -1 36 -1461693964 2097970677 742661501 2142765401
            671115774 -4423511 235436732 -1885578595</internalNodes>
          <leafValues>
            -6.7629998922348022e-01 5.0588840246200562e-01</leafValues></_>
        <_>
          <internalNodes>
            0 -1 59 -545918063 -547373295 -788138731 -170308837
            -1467277072 -1366578557 -1878858381 -73414005</internalNodes>
          <leafValues>
            -6.3758426904678345e-01 5.4119527339935303e-01</leafValues></_>
        <_>
          <internalNodes>
            0 -1 38 -69340749 -1064349191 -2012150391 -1393049339
            -2003763058 -534560633 262230527 -343964641</internalNodes>
          <leafValues>
            -5.7901966571807861e-01 5.6659299135208130e-01</leafValues></_>
        <_>
          <internalNodes>
            0 -1 26 50400464 1031866583 187946463 260379604 -1349784833
            -1346459249 704772281 -1885359627</internalNodes>
          <leafValues>
            -7.0599406957626343e-01 4.7646695375442505e-01</leafValues></_></weakClassifiers></_>
    <!-- stage 10 -->
    <_>
      <maxWeakCount>5</maxWeakCount>
      <stageThreshold>-5.5991727113723755e-01</stageThreshold>
      <weakClassifiers>
        <_>
          <internalNodes>
            0 -1 45 -810553345 -859443227 1323281931 -856691159
            -805327197 -439357689 -1881276497 -805306545</internalNodes>
          <leafValues>
            -4.2910975217819214e-01 7.5083827972412109e-01</leafValues></_>
        <_>
          <internalNodes>
            0 -1 20 -742689885 -1212337357 -205819033 -1187277
            -1558486101 -272649281 -1401756701 -894701453</internalNodes>
          <leafValues>
            -5.5189073085784912e-01 6.2070631980895996e-01</leafValues></_>
        <_>
          <internalNodes>
            0 -1 64 -335283207 -687634137 -821964031 -782245473
            -645790220 -1476304892 -780077581 -139482113</internalNodes>
          <leafValues>
            -6.0032886266708374e-01 5.3795307874679565e-01</leafValues></_>
        <_>
          <internalNodes>
            0 -1 44 -96341295 959683089 -1342153768 -1185828205
            -124716040 -14122357 -95224836 720431775</internalNodes>
          <leafValues>
            -6.1015152931213379e-01 5.2898383140563965e-01</leafValues></_>
        <_>
          <internalNodes>
            0 -1 28 -10555410 -791883558 -1946104628 -129119141
            1594673883 -501555062 1795876751 1384108702</internalNodes>
          <leafValues>
            -6.1463308334350586e-01 4.9328163266181946e-01</leafValues></_></weakClassifiers></_>
    <!-- stage 11 -->
    <_>
      <maxWeakCount>5</maxWeakCount>
      <stageThreshold>-6.6406482458114624e-01</stageThreshold>
      <weakClassifiers>
        <_>
          <internalNodes>
            0 -1 32 -403970864 -33563393 -8201 -537983625 -118567169
            -117523233 -1276198409 13518071</internalNodes>
          <leafValues>
            -5.6958919763565063e-01 6.7040514945983887e-01</leafValues></_>
        <_>
          <internalNodes>
            0 -1 41 1212187352 1058837956 1896389584 2098256272
            -1205186904 -8157023 -134116712 -123344871</internalNodes>
          <leafValues>
            -5.8618897199630737e-01 5.8055752515792847e-01</leafValues></_>
        <_>
          <internalNodes>
            0 -1 10 1347543123 -1068897291 1299535229 -621281281
            2100761433 -1 -545456129 -8388609</internalNodes>
          <leafValues>
            -5.2826952934265137e-01 6.2169414758682251e-01</leafValues></_>
        <_>
          <internalNodes>
            0 -1 56 -1143737857 -614772668 135037700 -81821604
            -1132342580 -695694688 -1308587300 -36398764</internalNodes>
          <leafValues>
            -6.3995814323425293e-01 5.3182137012481689e-01</leafValues></_>
        <_>
          <internalNodes>
            0 -1 5 -498347286 -301792701 -1467531263 -494436277
            -264183573 -838196567 -48303713 -337646437</internalNodes>
          <leafValues>
            -6.6153377294540405e-01 5.0997740030288696e-01</leafValues></_></weakClassifiers></_>
    <!-- stage 12 -->
    <_>
      <maxWeakCount>5</maxWeakCount>
      <stageThreshold>-3.8205751776695251e-01</stageThreshold>
      <weakClassifiers>
        <_>
          <internalNodes>
            0 -1 51 -256223041 -51095297 -1293280163 90212554 -16783574
            -8954178 -1493259254 -1440030066</internalNodes>
          <leafValues>
            -4.2656031250953674e-01 7.5187385082244873e-01</leafValues></_>
        <_>
          <internalNodes>
            0 -1 16 -771371294 -1173880701 268439560 -767492082
            -930021301 1489633416 -1681249285 992674443</internalNodes>
          <leafValues>
            -6.5820372104644775e-01 5.6390309333801270e-01</leafValues></_>
        <_>
          <internalNodes>
            0 -1 58 -587082340 -1722291135 1941146495 -2047377637
            -596640033 -269619537 -286457889 -1900286390</internalNodes>
          <leafValues>
            -5.6111997365951538e-01 6.6155362129211426e-01</leafValues></_>
        <_>
          <internalNodes>
            0 -1 21 -2143645549 -1313468143 -1347568869 -1275086027
            -24397333 -4541506 -2020655233 -1615072781</internalNodes>
          <leafValues>
            -5.5048406124114990e-01 6.5651154518127441e-01</leafValues></_>
        <_>
          <internalNodes>
            0 -1 24 -61820173 -1942975583 -1947586565 -583700779
            -1968111621 -655705101 -548077575 -897458345</internalNodes>
          <leafValues>
            -5.7111924886703491e-01 6.3988548517227173e-01</leafValues></_></weakClassifiers></_>
    <!-- stage 13 -->
    <_>
      <maxWeakCount>5</maxWeakCount>
      <stageThreshold>-3.7124201655387878e-01</stageThreshold>
      <weakClassifiers>
        <_>
          <internalNodes>
            0 -1 35 7476753 325663539 -864195269 1060708156 251084298
            1065242109 150865040 1042981168</internalNodes>
          <leafValues>
            -5.0269740819931030e-01 7.6369601488113403e-01</leafValues></_>
        <_>
          <internalNodes>
            0 -1 29 -1899942567 -1185936150 -32966 -616297428
            -1487616876 -1100718772 1575328940 -1962408832</internalNodes>
          <leafValues>
            -6.0206890106201172e-01 7.3672938346862793e-01</leafValues></_>
        <_>
          <internalNodes>
            0 -1 11 306385131 -1876906049 1080255809 1343351894 16802560
            24250389 -1619673778 -764231819</internalNodes>
          <leafValues>
            -5.4783570766448975e-01 7.6975423097610474e-01</leafValues></_>
        <_>
          <internalNodes>
            0 -1 54 1143036312 339820545 1090638227 -1736073023
            -2147483443 -2147483648 -2147432053 -402618814</internalNodes>
          <leafValues>
            -6.7485266923904419e-01 6.6336768865585327e-01</leafValues></_>
        <_>
          <internalNodes>
            0 -1 37 -2077740749 -2010106063 -1526972741 1576909748
            -1963180292 718077884 1811156607 -1689503795</internalNodes>
          <leafValues>
            -6.2777066230773926e-01 7.2209334373474121e-01</leafValues></_></weakClassifiers></_>
    <!-- stage 14 -->
    <_>
      <maxWeakCount>3</maxWeakCount>
      <stageThreshold>-6.5498727560043335e-01</stageThreshold>
      <weakClassifiers>
        <_>
          <internalNodes>
            0 -1 39 -2131754864 1000880032 -292494159 -602924028 32992
            41955315 -1787231189 1100186641</internalNodes>
          <leafValues>
            -6.1482119560241699e-01 9.3150311708450317e-01</leafValues></_>
        <_>
          <internalNodes>
            0 -1 33 537124872 2097152 276 83886082 1090650112 570949632
            1241522176 1082322432</internalNodes>
          <leafValues>
            -8.1492739915847778e-01 8.0842787027359009e-01</leafValues></_>
        <_>
          <internalNodes>
            0 -1 25 1879773315 67633152 -2147483648 262144 1074003968
            -2138569720 526336 -930971520</internalNodes>
          <leafValues>
            -7.7156293392181396e-01 8.8055574893951416e-01</leafValues></_></weakClassifiers></_></stages>
  <features>
    <_>
      <rect>
        0 15 5 7</rect></_>
    <_>
      <rect>
        2 12 5 6</rect></_>
    <_>
      <rect>
        3 7 5 7</rect></_>
    <_>
      <rect>
        4 7 6 8</rect></_>
    <_>
      <rect>
        4 7 6 9</rect></_>
    <_>
      <rect>
        4 22 2 3</rect></_>
    <_>
      <rect>
        4 26 1 1</rect></_>
    <_>
      <rect>
        5 6 6 6</rect></_>
    <_>
      <rect>
        7 7 2 8</rect></_>
    <_>
      <rect>
        7 11 3 7</rect></_>
    <_>
      <rect>
        7 16 3 8</rect></_>
    <_>
      <rect>
        7 22 3 6</rect></_>
    <_>
      <rect>
        7 22 12 8</rect></_>
    <_>
      <rect>
        8 5 5 9</rect></_>
    <_>
      <rect>
        8 13 3 8</rect></_>
    <_>
      <rect>
        8 23 10 6</rect></_>
    <_>
      <rect>
        8 29 8 4</rect></_>
    <_>
      <rect>
        9 18 10 6</rect></_>
    <_>
      <rect>
        10 9 9 5</rect></_>
    <_>
      <rect>
        11 5 6 5</rect></_>
    <_>
      <rect>
        11 6 5 5</rect></_>
    <_>
      <rect>
        11 10 4 3</rect></_>
    <_>
      <rect>
        12 31 8 6</rect></_>
    <_>
      <rect>
        13 4 7 5</rect></_>
    <_>
      <rect>
        13 7 7 3</rect></_>
    <_>
      <rect>
        14 2 4 7</rect></_>
    <_>
      <rect>
        15 7 4 2</rect></_>
    <_>
      <rect>
        16 6 5 3</rect></_>
    <_>
      <rect>
        16 10 5 9</rect></_>
    <_>
      <rect>
        16 36 6 4</rect></_>
    <_>
      <rect>
        17 6 3 2</rect></_>
    <_>
      <rect>
        18 6 5 3</rect></_>
    <_>
      <rect>
        19 9 3 5</rect></_>
    <_>
      <rect>
        19 27 3 4</rect></_>
    <_>
      <rect>
        19 37 5 4</rect></_>
    <_>
      <rect>
        20 4 4 2</rect></_>
    <_>
      <rect>
        20 5 5 3</rect></_>
    <_>
      <rect>
        21 7 4 2</rect></_>
    <_>
      <rect>
        21 11 7 7</rect></_>
    <_>
      <rect>
        22 16 3 3</rect></_>
    <_>
      <rect>
        23 14 6 6</rect></_>
    <_>
      <rect>
        24 18 4 2</rect></_>
    <_>
      <rect>
        25 10 5 9</rect></_>
    <_>
      <rect>
        26 9 6 4</rect></_>
    <_>
      <rect>
        26 12 4 3</rect></_>
    <_>
      <rect>
        27 8 5 8</rect></_>
    <_>
      <rect>
        27 19 3 3</rect></_>
    <_>
      <rect>
        28 8 4 11</rect></_>
    <_>
      <rect>
        28 9 4 4</rect></_>
    <_>
      <rect>
        28 9 4 10</rect></_>
    <_>
      <rect>
        28 17 5 3</rect></_>
    <_>
      <rect>
        29 9 4 3</rect></_>
    <_>
      <rect>
        29 10 4 7</rect></_>
    <_>
      <rect>
        29 16 4 7</rect></_>
    <_>
      <rect>
        29 17 7 8</rect></_>
    <_>
      <rect>
        29 21 3 3</rect></_>
    <_>
      <rect>
        29 31 3 5</rect></_>
    <_>
      <rect>
        30 11 4 9</rect></_>
    <_>
      <rect>
        30 21 2 3</rect></_>
    <_>
      <rect>
        30 25 5 4</rect></_>
    <_>
      <rect>
        30 27 6 4</rect></_>
    <_>
      <rect>
        31 24 5 4</rect></_>
    <_>
      <rect>
        32 23 5 4</rect></_>
    <_>
      <rect>
        34 15 3 4</rect></_>
    <_>
      <rect>
        36 21 4 6</rect></_>
    <_>
      <rect>
        37 24 3 6</rect></_>
    <_>
      <rect>
        38 25 3 7</rect></_>
    <_>
      <rect>
        39 19 3 5</rect></_>
    <_>
      <rect>
        42 21 2 3</rect></_>
    <_>
      <rect>
        42 23 2 3</rect></_></features></cascade>
</opencv_storage>
